<?xml version="1.0"?>
<opencv_storage>
<stage12>
  <maxWeakCount>6</maxWeakCount>
  <stageThreshold>-6.0071665048599243e-01</stageThreshold>
  <weakClassifiers>
    <_>
      <internalNodes>
        0 -1 71118 2.1704258397221565e-03</internalNodes>
      <leafValues>
        -7.8431375324726105e-02 -9.0588235855102539e-01</leafValues></_>
    <_>
      <internalNodes>
        0 -1 48468 1.1515167355537415e-01</internalNodes>
      <leafValues>
        -2.8990611433982849e-01 6.9291013479232788e-01</leafValues></_>
    <_>
      <internalNodes>
        0 -1 12805 9.1055599114042707e-06</internalNodes>
      <leafValues>
        2.0281358063220978e-01 -8.3780413866043091e-01</leafValues></_>
    <_>
      <internalNodes>
        0 -1 24271 -4.4809974730014801e-02</internalNodes>
      <leafValues>
        6.8834871053695679e-01 -2.3678696155548096e-01</leafValues></_>
    <_>
      <internalNodes>
        0 -1 104013 -1.0881210073421244e-05</internalNodes>
      <leafValues>
        4.8058894276618958e-01 -3.6126580834388733e-01</leafValues></_>
    <_>
      <internalNodes>
        0 -1 13391 9.7200935706496239e-03</internalNodes>
      <leafValues>
        1.6286003589630127e-01 -9.4589090347290039e-01</leafValues></_></weakClassifiers></stage12>
</opencv_storage>
