<?xml version="1.0"?>
<opencv_storage>
<stage8>
  <maxWeakCount>6</maxWeakCount>
  <stageThreshold>-3.7796285748481750e-01</stageThreshold>
  <weakClassifiers>
    <_>
      <internalNodes>
        0 -1 148788 2.8971662744879723e-02</internalNodes>
      <leafValues>
        -6.0377359390258789e-01 4.5454546809196472e-01</leafValues></_>
    <_>
      <internalNodes>
        0 -1 137413 -3.9962294977158308e-04</internalNodes>
      <leafValues>
        5.0185441970825195e-01 -5.1100867986679077e-01</leafValues></_>
    <_>
      <internalNodes>
        0 -1 37968 -1.8793073832057416e-04</internalNodes>
      <leafValues>
        -8.1510818004608154e-01 3.2061561942100525e-01</leafValues></_>
    <_>
      <internalNodes>
        0 -1 49461 1.3034614312346093e-05</internalNodes>
      <leafValues>
        3.1556150317192078e-01 -8.1996202468872070e-01</leafValues></_>
    <_>
      <internalNodes>
        0 -1 83555 8.1754973507486284e-05</internalNodes>
      <leafValues>
        -5.7673567533493042e-01 5.0291776657104492e-01</leafValues></_>
    <_>
      <internalNodes>
        0 -1 138463 9.5482962206006050e-04</internalNodes>
      <leafValues>
        -2.5808036327362061e-01 8.5028779506683350e-01</leafValues></_></weakClassifiers></stage8>
</opencv_storage>
