<?xml version="1.0"?>
<opencv_storage>
<stage5>
  <maxWeakCount>5</maxWeakCount>
  <stageThreshold>-8.0476850271224976e-01</stageThreshold>
  <weakClassifiers>
    <_>
      <internalNodes>
        0 -1 155816 3.8352943956851959e-03</internalNodes>
      <leafValues>
        -5.3781515359878540e-01 6.8627452850341797e-01</leafValues></_>
    <_>
      <internalNodes>
        0 -1 696 2.8061558259651065e-04</internalNodes>
      <leafValues>
        2.8469681739807129e-01 -7.9396092891693115e-01</leafValues></_>
    <_>
      <internalNodes>
        0 -1 105092 7.9102255403995514e-04</internalNodes>
      <leafValues>
        -3.7515848875045776e-01 6.7798054218292236e-01</leafValues></_>
    <_>
      <internalNodes>
        0 -1 162188 2.9183882288634777e-03</internalNodes>
      <leafValues>
        3.1389930844306946e-01 -8.8866907358169556e-01</leafValues></_>
    <_>
      <internalNodes>
        0 -1 47385 6.1689421534538269e-02</internalNodes>
      <leafValues>
        -3.4096163511276245e-01 8.1823521852493286e-01</leafValues></_></weakClassifiers></stage5>
</opencv_storage>
