<?xml version="1.0"?>
<opencv_storage>
<stage10>
  <maxWeakCount>7</maxWeakCount>
  <stageThreshold>-9.5465189218521118e-01</stageThreshold>
  <weakClassifiers>
    <_>
      <internalNodes>
        0 -1 121343 -4.8171375965466723e-05</internalNodes>
      <leafValues>
        -8.9999997615814209e-01 -1.0047847032546997e-01</leafValues></_>
    <_>
      <internalNodes>
        0 -1 4995 -9.1566944320220500e-06</internalNodes>
      <leafValues>
        -6.6293609142303467e-01 1.9015643000602722e-01</leafValues></_>
    <_>
      <internalNodes>
        0 -1 139286 -2.7021105051971972e-04</internalNodes>
      <leafValues>
        5.1862829923629761e-01 -3.7179699540138245e-01</leafValues></_>
    <_>
      <internalNodes>
        0 -1 113334 5.5469674407504499e-05</internalNodes>
      <leafValues>
        -3.4223580360412598e-01 4.6638488769531250e-01</leafValues></_>
    <_>
      <internalNodes>
        0 -1 55573 1.3511460274457932e-03</internalNodes>
      <leafValues>
        -2.3062014579772949e-01 6.7960309982299805e-01</leafValues></_>
    <_>
      <internalNodes>
        0 -1 28837 -1.9826317206025124e-02</internalNodes>
      <leafValues>
        5.6047731637954712e-01 -3.5364922881126404e-01</leafValues></_>
    <_>
      <internalNodes>
        0 -1 81082 -1.6309553757309914e-04</internalNodes>
      <leafValues>
        -8.8091588020324707e-01 2.5397232174873352e-01</leafValues></_></weakClassifiers></stage10>
</opencv_storage>
