<?xml version="1.0"?>
<opencv_storage>
<stage14>
  <maxWeakCount>8</maxWeakCount>
  <stageThreshold>-1.0178005695343018e+00</stageThreshold>
  <weakClassifiers>
    <_>
      <internalNodes>
        0 -1 58029 1.2966492772102356e-01</internalNodes>
      <leafValues>
        -5.2742618322372437e-01 6.1538463830947876e-01</leafValues></_>
    <_>
      <internalNodes>
        0 -1 103236 1.1275394819676876e-02</internalNodes>
      <leafValues>
        -3.4996098279953003e-01 5.4765486717224121e-01</leafValues></_>
    <_>
      <internalNodes>
        0 -1 840 -1.1117219924926758e-01</internalNodes>
      <leafValues>
        -8.6887764930725098e-01 2.3706303536891937e-01</leafValues></_>
    <_>
      <internalNodes>
        0 -1 4091 3.4052492992486805e-05</internalNodes>
      <leafValues>
        1.9176840782165527e-01 -7.2593206167221069e-01</leafValues></_>
    <_>
      <internalNodes>
        0 -1 113294 -3.9845921099185944e-02</internalNodes>
      <leafValues>
        6.4115118980407715e-01 -2.9234743118286133e-01</leafValues></_>
    <_>
      <internalNodes>
        0 -1 120446 1.3312418013811111e-03</internalNodes>
      <leafValues>
        -1.9729930162429810e-01 7.1029388904571533e-01</leafValues></_>
    <_>
      <internalNodes>
        0 -1 57869 -8.7510896264575422e-05</internalNodes>
      <leafValues>
        3.5836055874824524e-01 -4.6092590689659119e-01</leafValues></_>
    <_>
      <internalNodes>
        0 -1 104402 1.3666662562172860e-04</internalNodes>
      <leafValues>
        -4.3795871734619141e-01 4.3624979257583618e-01</leafValues></_></weakClassifiers></stage14>
</opencv_storage>
