<?xml version="1.0"?>
<opencv_storage>
<stage4>
  <maxWeakCount>6</maxWeakCount>
  <stageThreshold>-1.0362296104431152e+00</stageThreshold>
  <weakClassifiers>
    <_>
      <internalNodes>
        0 -1 153489 7.6695494353771210e-03</internalNodes>
      <leafValues>
        -7.7173912525177002e-01 3.9784947037696838e-01</leafValues></_>
    <_>
      <internalNodes>
        0 -1 88278 1.6840477474033833e-03</internalNodes>
      <leafValues>
        -7.7942693233489990e-01 4.1937017440795898e-01</leafValues></_>
    <_>
      <internalNodes>
        0 -1 118634 2.8849299997091293e-04</internalNodes>
      <leafValues>
        -4.8556360602378845e-01 7.4442970752716064e-01</leafValues></_>
    <_>
      <internalNodes>
        0 -1 150147 3.7610812578350306e-03</internalNodes>
      <leafValues>
        -4.4881343841552734e-01 7.3831576108932495e-01</leafValues></_>
    <_>
      <internalNodes>
        0 -1 134 -8.0783953890204430e-03</internalNodes>
      <leafValues>
        8.0121093988418579e-01 -4.5401507616043091e-01</leafValues></_>
    <_>
      <internalNodes>
        0 -1 27564 2.6431631296873093e-02</internalNodes>
      <leafValues>
        -4.8259770870208740e-01 7.3632496595382690e-01</leafValues></_></weakClassifiers></stage4>
</opencv_storage>
