<?xml version="1.0"?>
<opencv_storage>
<stage3>
  <maxWeakCount>5</maxWeakCount>
  <stageThreshold>-1.2748208045959473e+00</stageThreshold>
  <weakClassifiers>
    <_>
      <internalNodes>
        0 -1 8267 -1.3187244534492493e-02</internalNodes>
      <leafValues>
        4.2857143282890320e-01 -7.7419352531433105e-01</leafValues></_>
    <_>
      <internalNodes>
        0 -1 146988 9.7965374588966370e-03</internalNodes>
      <leafValues>
        -7.2285521030426025e-01 5.2204811573028564e-01</leafValues></_>
    <_>
      <internalNodes>
        0 -1 139789 -1.8347860532230698e-05</internalNodes>
      <leafValues>
        -8.6818158626556396e-01 4.1148465871810913e-01</leafValues></_>
    <_>
      <internalNodes>
        0 -1 54438 8.0255540087819099e-03</internalNodes>
      <leafValues>
        -4.9795126914978027e-01 7.9891949892044067e-01</leafValues></_>
    <_>
      <internalNodes>
        0 -1 128340 8.5511950601357967e-05</internalNodes>
      <leafValues>
        3.8559576869010925e-01 -9.5772695541381836e-01</leafValues></_></weakClassifiers></stage3>
</opencv_storage>
